digraph Tree {
node [shape=box] ;
0 [label="X[1] <= 1.9943\ngini = 0.0644\nsamples = 10000\nvalue = [333, 9667]"] ;
1 [label="X[1] <= 1.3182\ngini = 0.0346\nsamples = 9712\nvalue = [171, 9541]"] ;
0 -> 1 [labeldistance=2.5, labelangle=45, headlabel="True"] ;
2 [label="X[1] <= 0.9124\ngini = 0.0141\nsamples = 9004\nvalue = [64, 8940]"] ;
1 -> 2 ;
3 [label="X[1] <= 0.545\ngini = 0.0066\nsamples = 8154\nvalue = [27, 8127]"] ;
2 -> 3 ;
4 [label="X[1] <= 0.2558\ngini = 0.0028\nsamples = 7085\nvalue = [10, 7075]"] ;
3 -> 4 ;
5 [label="gini = 0.001\nsamples = 6061\nvalue = [3, 6058]"] ;
4 -> 5 ;
6 [label="gini = 0.0136\nsamples = 1024\nvalue = [7, 1017]"] ;
4 -> 6 ;
7 [label="X[1] <= 0.5454\ngini = 0.0313\nsamples = 1069\nvalue = [17, 1052]"] ;
3 -> 7 ;
8 [label="gini = 0.0\nsamples = 1\nvalue = [1, 0]"] ;
7 -> 8 ;
9 [label="gini = 0.0295\nsamples = 1068\nvalue = [16, 1052]"] ;
7 -> 9 ;
10 [label="X[1] <= 0.9127\ngini = 0.0833\nsamples = 850\nvalue = [37, 813]"] ;
2 -> 10 ;
11 [label="gini = 0.0\nsamples = 1\nvalue = [1, 0]"] ;
10 -> 11 ;
12 [label="X[2] <= 0.0885\ngini = 0.0812\nsamples = 849\nvalue = [36, 813]"] ;
10 -> 12 ;
13 [label="gini = 0.0561\nsamples = 485\nvalue = [14, 471]"] ;
12 -> 13 ;
14 [label="gini = 0.1136\nsamples = 364\nvalue = [22, 342]"] ;
12 -> 14 ;
15 [label="X[1] <= 1.7846\ngini = 0.2566\nsamples = 708\nvalue = [107, 601]"] ;
1 -> 15 ;
16 [label="X[2] <= 2.0727\ngini = 0.2225\nsamples = 549\nvalue = [70, 479]"] ;
15 -> 16 ;
17 [label="X[1] <= 1.3189\ngini = 0.2163\nsamples = 543\nvalue = [67, 476]"] ;
16 -> 17 ;
18 [label="gini = 0.0\nsamples = 1\nvalue = [1, 0]"] ;
17 -> 18 ;
19 [label="gini = 0.2139\nsamples = 542\nvalue = [66, 476]"] ;
17 -> 19 ;
20 [label="X[1] <= 1.6543\ngini = 0.5\nsamples = 6\nvalue = [3, 3]"] ;
16 -> 20 ;
21 [label="gini = 0.375\nsamples = 4\nvalue = [1, 3]"] ;
20 -> 21 ;
22 [label="gini = 0.0\nsamples = 2\nvalue = [2, 0]"] ;
20 -> 22 ;
23 [label="X[1] <= 1.7856\ngini = 0.3571\nsamples = 159\nvalue = [37, 122]"] ;
15 -> 23 ;
24 [label="gini = 0.0\nsamples = 1\nvalue = [1, 0]"] ;
23 -> 24 ;
25 [label="X[2] <= -1.2415\ngini = 0.3519\nsamples = 158\nvalue = [36, 122]"] ;
23 -> 25 ;
26 [label="gini = 0.4608\nsamples = 25\nvalue = [9, 16]"] ;
25 -> 26 ;
27 [label="gini = 0.3236\nsamples = 133\nvalue = [27, 106]"] ;
25 -> 27 ;
28 [label="X[1] <= 2.3497\ngini = 0.4922\nsamples = 288\nvalue = [162, 126]"] ;
0 -> 28 [labeldistance=2.5, labelangle=-45, headlabel="False"] ;
29 [label="X[2] <= -0.4586\ngini = 0.4883\nsamples = 170\nvalue = [72, 98]"] ;
28 -> 29 ;
30 [label="X[2] <= -1.057\ngini = 0.4306\nsamples = 102\nvalue = [32, 70]"] ;
29 -> 30 ;
31 [label="X[1] <= 2.3059\ngini = 0.4717\nsamples = 63\nvalue = [24, 39]"] ;
30 -> 31 ;
32 [label="gini = 0.4518\nsamples = 58\nvalue = [20, 38]"] ;
31 -> 32 ;
33 [label="gini = 0.32\nsamples = 5\nvalue = [4, 1]"] ;
31 -> 33 ;
34 [label="X[1] <= 2.0277\ngini = 0.3261\nsamples = 39\nvalue = [8, 31]"] ;
30 -> 34 ;
35 [label="gini = 0.5\nsamples = 8\nvalue = [4, 4]"] ;
34 -> 35 ;
36 [label="gini = 0.2248\nsamples = 31\nvalue = [4, 27]"] ;
34 -> 36 ;
37 [label="X[1] <= 2.1795\ngini = 0.4844\nsamples = 68\nvalue = [40, 28]"] ;
29 -> 37 ;
38 [label="X[1] <= 2.007\ngini = 0.4997\nsamples = 43\nvalue = [21, 22]"] ;
37 -> 38 ;
39 [label="gini = 0.0\nsamples = 5\nvalue = [5, 0]"] ;
38 -> 39 ;
40 [label="gini = 0.4875\nsamples = 38\nvalue = [16, 22]"] ;
38 -> 40 ;
41 [label="X[1] <= 2.3352\ngini = 0.3648\nsamples = 25\nvalue = [19, 6]"] ;
37 -> 41 ;
42 [label="gini = 0.2975\nsamples = 22\nvalue = [18, 4]"] ;
41 -> 42 ;
43 [label="gini = 0.4444\nsamples = 3\nvalue = [1, 2]"] ;
41 -> 43 ;
44 [label="X[1] <= 2.6858\ngini = 0.362\nsamples = 118\nvalue = [90, 28]"] ;
28 -> 44 ;
45 [label="X[1] <= 2.684\ngini = 0.4178\nsamples = 74\nvalue = [52, 22]"] ;
44 -> 45 ;
46 [label="X[1] <= 2.3871\ngini = 0.4012\nsamples = 72\nvalue = [52, 20]"] ;
45 -> 46 ;
47 [label="gini = 0.0\nsamples = 7\nvalue = [7, 0]"] ;
46 -> 47 ;
48 [label="gini = 0.426\nsamples = 65\nvalue = [45, 20]"] ;
46 -> 48 ;
49 [label="gini = 0.0\nsamples = 2\nvalue = [0, 2]"] ;
45 -> 49 ;
50 [label="X[2] <= -1.7783\ngini = 0.2355\nsamples = 44\nvalue = [38, 6]"] ;
44 -> 50 ;
51 [label="gini = 0.0\nsamples = 1\nvalue = [0, 1]"] ;
50 -> 51 ;
52 [label="X[1] <= 3.0285\ngini = 0.2055\nsamples = 43\nvalue = [38, 5]"] ;
50 -> 52 ;
53 [label="gini = 0.1372\nsamples = 27\nvalue = [25, 2]"] ;
52 -> 53 ;
54 [label="gini = 0.3047\nsamples = 16\nvalue = [13, 3]"] ;
52 -> 54 ;
}